svm_type c_svc
kernel_type rbf
gamma 8.0
nr_class 3
total_sv 285
rho 1.0213907835802665 -3.6917249836688626 -0.8394231707201997
label 4 5 1
nr_sv 130 123 32
SV
128.0 0.0 101:0.4830370782426922 102:0.2841685402521466 103:0.10952217865099503 104:0.3620689655172414 105:0.32973137167867506 106:0.28551673241266134 112:0.27832850145727706 114:0.3537749829505958 115:0.34926377929109137 
0.0 19.24488836547963 101:0.5295890838240902 102:0.09519893069592333 103:0.00904228668647136 104:0.5 105:0.09346557715327194 106:0.10318740928613844 112:0.09074877853833821 114:0.09545102109658687 115:0.09741404090161462 
128.0 0.0 101:0.3690896645295061 102:0.10439188053720727 103:0.03906658541973678 104:0.3620689655172414 105:0.19620434631243328 106:0.06405373357304958 112:0.06324730369290409 114:0.19638076053176504 115:0.20174438785082163 
13.799299274927053 0.0 101:0.36566325642264175 102:0.12129290946222483 103:0.04020596714199761 104:0.29310344827586204 105:0.19907098473751475 106:0.07610433394575888 112:0.0744266684368025 114:0.16278378493962273 115:0.19799894455224692 
128.0 0.0 101:0.4312833011870034 102:0.12278803245120722 103:0.03830897873490708 104:0.3275862068965517 105:0.19427504293787665 106:0.09499424609109543 112:0.09097754564174382 114:0.20028941488078314 115:0.19550485161937 
128.0 0.0 101:0.4244436128737224 102:0.20583542701542484 103:0.0614169516310164 104:0.3620689655172414 105:0.2464653944237608 106:0.1822998972215136 112:0.17538624014107304 114:0.2607337608463198 115:0.257073873573484 
88.32787674871098 0.0 101:0.42848792747355124 102:0.20760777401603747 103:0.08696468834158726 104:0.3620689655172414 105:0.29362302251397787 106:0.20134379501143201 112:0.19830219604013755 114:0.2608625181062431 115:0.2971659383338885 
128.0 0.0 101:0.4297940120214257 102:0.18579518391923067 103:0.06453129308863498 104:0.3620689655172414 105:0.25268215162113516 106:0.17400583195073027 112:0.1686535774893235 114:0.24859965178290722 115:0.2547018076890524 
76.43958118608639 0.0 101:0.27627651177530693 102:0.44497120973432036 103:0.2351461481505476 104:0.43103448275862066 105:0.48398637468511235 106:0.3925010518782433 112:0.3968064216841082 114:0.36442545525481934 115:0.4707215744852895 
1.0024673143555805 0.0 101:0.39743858815284794 102:0.4151603951352882 103:0.1840870618978243 104:0.3620689655172414 105:0.4280204869502753 106:0.4956333065893383 112:0.4792604905422297 114:0.32901967419024486 115:0.4072350499207448 
128.0 0.0 101:0.3940045399248221 102:0.373968997449759 103:0.2049927190502063 104:0.3620689655172414 105:0.45177081325864504 106:0.39331075383048825 112:0.3921329102213004 114:0.4647990540527297 115:0.4746750236345053 
78.28575819658845 0.0 101:0.40901787822088764 102:0.17437849789409385 103:0.04846189134457356 104:0.43103448275862066 105:0.21873220561789988 106:0.09781860993978525 112:0.09617678860470488 114:0.20489881005138763 115:0.22020779153047546 
128.0 0.0 101:0.4002922521181507 102:0.15281386145649195 103:0.04787049339145483 104:0.43103448275862066 105:0.21738245738070022 106:0.07893529056412048 112:0.0790318550910019 114:0.1814879774178194 115:0.21085975643208787 
17.924581988432333 0.0 101:0.44158875694577326 102:0.12854513591894826 103:0.02987211159235456 104:0.3620689655172414 105:0.17134335157807404 106:0.07561519874422763 112:0.07119600216151062 114:0.15613584912917947 115:0.17499620039317013 
81.09601904543403 0.0 101:0.44639517464699213 102:0.10745916070130046 103:0.025806940142585305 104:0.3620689655172414 105:0.1591318491330319 106:0.04925719538251584 112:0.046182081234344266 114:0.15204016145942895 115:0.16303275460186198 
7.731958375744652 0.0 101:0.5022198419316044 102:0.09259155970880713 103:0.01583862527049478 104:0.43103448275862066 105:0.12427779565399275 106:0.09530922226801469 112:0.08534443174641997 114:0.14051985118839105 115:0.13406034613608017 
128.0 0.0 101:0.43307277173680425 102:0.12933531896100856 103:0.03182287680408279 104:0.43103448275862066 105:0.1769073000205805 106:0.10002312876197342 112:0.09383072975468087 114:0.17600268024662574 115:0.1857370011468257 
16.933839276170122 0.0 101:0.5212194138598716 102:0.1331745336333231 103:0.017236173511837496 104:0.6379310344827587 105:0.1297221190536558 106:0.10636613699182142 112:0.09579270126459392 114:0.11268822453805269 115:0.12935444449865954 
9.305696490950195 0.0 101:0.5129060347946488 102:0.10340765749623841 103:0.02101015556080041 104:0.43103448275862066 105:0.14340790938683715 106:0.09447688471761495 112:0.08595378554112665 114:0.17208094565600146 115:0.15621591619935318 
128.0 0.0 101:0.5671273872026971 102:0.2885311704509891 103:0.07100325958341057 104:0.3620689655172414 105:0.2651386641069652 106:0.33481712503923744 112:0.31494738394482225 114:0.23215820868032694 115:0.26418954175587034 
128.0 0.0 101:0.5226179418839122 102:0.28220946935904734 103:0.07790751340229923 104:0.29310344827586204 105:0.277816139081866 106:0.3304437126651344 112:0.3123479711598799 114:0.25258874751124644 115:0.28439165922681037 
83.22068074126263 0.0 101:0.5118883766678647 102:0.26270526476697476 103:0.06836059963281457 104:0.3620689655172414 105:0.2601239364418799 106:0.2504522253646638 112:0.23829846631262896 114:0.2487857395469162 115:0.26610376421608334 
128.0 0.0 101:0.5831432080096075 102:0.28471578312652807 103:0.0618209030130168 104:0.29310344827586204 105:0.24728050759230405 106:0.3860546389087816 112:0.35956596799074814 114:0.24312168555061753 115:0.257462399426053 
128.0 0.0 101:0.5020084652927863 102:0.3768188703841036 103:0.13167000229858591 104:0.29310344827586204 105:0.36171108565815496 106:0.39586562735029057 112:0.381197828860356 114:0.38087984531331287 115:0.3762414963722989 
128.0 0.0 101:0.5232412388614274 102:0.273499537996304 103:0.08964407740142999 104:0.29310344827586204 105:0.2981395632929743 106:0.27930474700229313 112:0.26870041916980625 114:0.3234348873332226 115:0.319974456916606 
60.161187139380175 0.0 101:0.5038406160070608 102:0.24758616667778968 103:0.08435209848321677 104:0.29310344827586204 105:0.2891515821711385 106:0.26211493527657326 112:0.2521738509728261 114:0.31072748651524673 115:0.3093468526484456 
106.6563962532367 0.0 101:0.49304354479112533 102:0.24357363109045618 103:0.06564939559893747 104:0.43103448275862066 105:0.2548773473755645 106:0.23951226533020292 112:0.2278578219375934 114:0.2505161207597685 115:0.2608937691015535 
71.18836469729877 0.0 101:0.42598722589972704 102:0.12867322671708886 103:0.036128959439171195 104:0.43103448275862066 105:0.188614443192112 106:0.06467673125787549 112:0.06300453993742067 114:0.18693214747404513 115:0.19790656086967787 
29.498780527007224 0.0 101:0.4427026223395687 102:0.1061136208315684 103:0.027811885502827004 104:0.43103448275862066 105:0.16526615026449962 106:0.06278098793601321 112:0.059002123089344424 114:0.16850070887571525 115:0.17245694763468478 
128.0 0.0 101:0.4112356961745735 102:0.1239564915125165 103:0.03628058063734654 104:0.43103448275862066 105:0.18901357325512894 106:0.08069327019192735 112:0.07751625827290094 114:0.18300117037039793 115:0.19361061649762287 
92.374416626594 0.0 101:0.43308179029422494 102:0.12173006570194378 103:0.025861286371671687 104:0.43103448275862066 105:0.159301205671286 106:0.09687881355214432 112:0.08941622358571132 114:0.14139316389531068 115:0.16067692734222525 
17.385593760688632 0.0 101:0.48701558553991336 102:0.09023467154767878 103:0.012757806310386487 104:0.39655172413793105 105:0.11135475148710598 106:0.09100796818554388 112:0.08060145002965671 114:0.09953058022799459 115:0.11127852058837336 
128.0 0.0 101:0.39836828668572105 102:0.22804082715465449 103:0.07013717002734873 104:0.3620689655172414 105:0.26350560881998647 106:0.10597814396835159 112:0.10907590611217018 114:0.24273612111355203 115:0.2635050160610739 
5.736557742059398 0.0 101:0.4329065062777664 102:0.1411117584811382 103:0.048583876649827495 104:0.29310344827586204 105:0.21900958646688665 106:0.05344659129979192 112:0.056325515149338395 114:0.2285410081514602 115:0.22976188788061164 
128.0 0.0 101:0.41069577967665 102:0.1315550825795523 103:0.035492382434114074 104:0.3620689655172414 105:0.18692949728118327 106:0.06743383578010359 112:0.06532102381476602 114:0.17890966460026275 115:0.19020200206987264 
128.0 0.0 101:0.39810092623179966 102:0.13116630271770507 103:0.04364908793957605 104:0.3620689655172414 105:0.20749528938935513 106:0.049550213539252125 112:0.051451897769363424 114:0.18506545780050898 115:0.21371299495092014 
52.047002213279455 0.0 101:0.34646821801953837 102:0.16016191631690274 103:0.08073921658104682 104:0.46551724137931033 105:0.2828524477120968 106:0.05596418359505083 112:0.0673995727842782 114:0.3302118637935324 115:0.30567508645287333 
59.43352065159146 0.0 101:0.3853990049268745 102:0.11655196144172403 103:0.0727301865570032 104:0.46551724137931033 105:0.2683654104924518 106:0.060640243117108375 112:0.06936990595808165 114:0.31241648004705946 115:0.2966827865596437 
12.200521483485058 0.0 101:0.760895555172476 102:0.49407638006975946 103:0.12202861812941385 104:0.6379310344827587 105:0.3481490457313452 106:0.7445490043048909 112:0.6938031038375023 114:0.3223519322847793 115:0.35460640225938744 
97.43500061766511 0.0 101:0.4699477302849953 102:0.3122953526575709 103:0.11246558924111383 104:0.29310344827586204 105:0.3341568611170466 106:0.3897125222349353 112:0.37219034095975384 114:0.31742813797847136 115:0.3417075835382388 
77.93649096065542 0.0 101:0.3745270477117025 102:0.27691302897119485 103:0.08315830511712202 104:0.39655172413793105 105:0.28708537256809924 106:0.24981893518983328 112:0.24088586406089688 114:0.14047277464166824 115:0.25571016845002575 
57.23742481629433 0.0 101:0.6011180019933209 102:0.41307759097143043 103:0.14118606285678903 104:0.3620689655172414 105:0.37461801949768414 106:0.5639390178497873 112:0.5335478179902827 114:0.3332705931360382 115:0.3701414903003282 
128.0 0.0 101:0.6264893784382857 102:0.40856427685728397 103:0.11814272464940208 104:0.43103448275862066 105:0.34253196798433944 106:0.5661228991227354 112:0.531921672438521 114:0.2919492275275844 115:0.34079899558882437 
13.883114525339737 0.0 101:0.5378461909228404 102:0.3382051694531767 103:0.12392664195664287 104:0.3620689655172414 105:0.3508601292677113 106:0.4614703389618746 112:0.4386407726693494 114:0.31821316342997785 115:0.3535114023580015 
128.0 0.0 101:0.5251915708631268 102:0.3115239104789514 103:0.09430864987853015 104:0.3620689655172414 105:0.3058442991252407 106:0.3914556999652611 112:0.3704337892436773 114:0.29399879269556417 115:0.3078729788935464 
11.907932721044006 0.0 101:0.5502667487434225 102:0.23108803362293456 103:0.07488120120176801 104:0.5 105:0.2723314511847194 106:0.29286791262531947 112:0.27787395899667716 114:0.3263893488143842 115:0.2839494357023063 
128.0 0.0 101:0.4363036392228882 102:0.271990894487176 103:0.10114331431695664 104:0.43103448275862066 105:0.3167971746365729 106:0.3111853345230676 112:0.29961058338693364 114:0.28428595915617255 115:0.31737630999069916 
128.0 0.0 101:0.32617269881409167 102:0.25127783588658054 103:0.12955824181037934 104:0.29310344827586204 105:0.35878420816597617 106:0.257850533862524 112:0.25782959771843916 114:0.3263001706430631 115:0.3651365342806472 
128.0 0.0 101:0.5136402483599535 102:0.2652700166487766 103:0.08828095505364746 104:0.5 105:0.2958503653588349 106:0.27873819130923494 112:0.2679113451071535 114:0.29219879601176935 115:0.30188644970279 
58.905533987451875 0.0 101:0.5055043556968644 102:0.24667689357845765 103:0.07074730350892422 104:0.3620689655172414 105:0.26465708789653086 106:0.2824859657811698 112:0.26767001930530837 114:0.258488126353324 115:0.267970162852793 
17.16272101876459 0.0 101:0.3580621368012308 102:0.3526218663650279 103:0.12706591935847567 104:0.29310344827586204 105:0.35529901475725034 106:0.20744434912269158 112:0.21266203444656503 114:0.3027865008608035 115:0.3493516834406573 
128.0 0.0 101:0.49032126419763966 102:0.27624813125823605 103:0.0933784784200684 104:0.3620689655172414 105:0.30432336164314217 106:0.3340879720374617 112:0.31864193456487294 114:0.25796028899298507 115:0.3057016640884838 
89.49540536604385 0.0 101:0.32262472356335253 102:0.22664073649093203 103:0.07261930505146179 104:0.5 105:0.2681593880936259 106:0.11921516299585547 112:0.12152368093777907 114:0.23434482759879768 115:0.2615970858425692 
3.1242199162121445 0.0 101:0.2676525732788539 102:0.26592589527596794 103:0.14578060420392105 104:0.08620689655172414 105:0.3806938723403791 106:0.22462590807609392 112:0.23190129789537217 114:0.39196243060263314 115:0.3951166675489309 
1.1463243956146476 0.0 101:0.31837521505514116 102:0.26816627040671503 103:0.13671544150870568 104:0.1896551724137931 105:0.3686103889198188 106:0.2512158554520033 112:0.25344837544915666 114:0.34059076822091067 115:0.3689729936967163 
3.578653223408138 0.0 101:0.33009300981183354 102:0.21854089963907475 103:0.07995167609568353 104:0.22413793103448276 105:0.28146076077790905 106:0.19350162751696318 112:0.18969986074182874 114:0.2511279629459591 115:0.2844492647123861 
23.005755786063972 0.0 101:0.27824337236580626 102:0.2507451218744262 103:0.11887563559592508 104:0.1896551724137931 105:0.3435983838025728 106:0.20354656530447976 112:0.20739889087728172 114:0.2863646112110483 115:0.34339926915710706 
128.0 0.0 101:0.30780562102510195 102:0.16927086154003468 103:0.08174202443715863 104:0.22413793103448276 105:0.2846147535022202 106:0.14514572829942973 112:0.14690737265386436 114:0.25359074905459345 115:0.2918905203454091 
44.09280399555448 0.0 101:0.366922093232845 102:0.19042568625776085 103:0.11613294435268136 104:0.22413793103448276 105:0.33959056342522825 106:0.14870674157796468 112:0.15830147967512853 114:0.40496371623494265 115:0.3774966963194774 
9.744428372414092 0.0 101:0.3532838609606607 102:0.17566761293379024 103:0.11195658674920979 104:0.20689655172413793 105:0.33339574168256025 106:0.1541991372092571 112:0.16215997922995087 114:0.38767975103934277 115:0.35938466182310036 
12.912750545775083 0.0 101:0.42370740982169713 102:0.17749101505478945 103:0.10040976381278241 104:0.22413793103448276 105:0.3156397284489967 106:0.12989570288744062 112:0.137895163293424 114:0.3979453234359409 115:0.3491174570536872 
0.0 128.0 101:0.5099013276493928 102:0.019137766230678834 103:0.0010405787942562431 104:0.5344827586206896 105:0.030552340281059215 106:0.015874322385422576 112:0.008535360881946947 114:0.025471788197867478 115:0.03029113744093835 
0.0 128.0 101:0.5099013276493928 102:0.019137766230678834 103:0.0010405787942562431 104:0.5344827586206896 105:0.030552340281059215 106:0.015874322385422576 112:0.008535360881946947 114:0.025471788197867478 115:0.03029113744093835 
0.0 128.0 101:0.5309166755301047 102:0.01903060828513491 103:4.576850881743766E-4 104:0.3275862068965517 105:0.019693999456925796 106:0.02053432168536719 112:0.012636802132494662 114:0.017470131650534484 115:0.01961151091144921 
0.0 128.0 101:0.5309166755301047 102:0.01903060828513491 103:4.576850881743766E-4 104:0.3275862068965517 105:0.019693999456925796 106:0.02053432168536719 112:0.012636802132494662 114:0.017470131650534484 115:0.01961151091144921 
0.0 128.0 101:0.5447377537144674 102:0.008135199143023669 103:4.813454650647836E-5 104:0.5172413793103449 105:0.0053684872960751044 106:0.017631065967698152 112:0.009849609882137466 114:0.004821121492280802 115:0.005288893281128383 
0.0 128.0 101:0.5480947267103364 102:0.006478350884696729 103:1.744186007294888E-5 104:0.8448275862068966 105:0.002745579023825849 106:0.01790438671133422 112:0.010091301442316288 114:0.002492750906661845 115:0.0027075741555437007 
0.0 40.801488405349716 101:0.48792289705200403 102:0.03626327288640523 103:0.002696195563381224 104:0.5862068965517241 105:0.05023562873727672 106:0.00944513158745773 112:0.0031395074291152665 114:0.045021446397679486 115:0.049817659494409625 
7.215447017284746 0.0 101:0.21190992821130036 102:0.18328332404542602 103:0.12884280605661552 104:0.25862068965517243 105:0.3577872194006002 106:0.03265200330044034 112:0.0601848486326091 114:0.3686221800144106 115:0.37866457070968434 
8.001553992438097 0.0 101:0.21190992821130036 102:0.18328332404542602 103:0.12884280605661552 104:0.25862068965517243 105:0.3577872194006002 106:0.03265200330044034 112:0.0601848486326091 114:0.3686221800144106 115:0.37866457070968434 
0.0 128.0 101:0.5241725245737364 102:0.0223171278323753 103:7.099529428406421E-4 104:0.5862068965517241 105:0.02493980697914752 106:0.020709557250536498 112:0.012872859503583212 114:0.022053089065397453 115:0.024720000597476872 
0.0 128.0 101:0.533479045852053 102:0.017496095496276516 103:3.4510320601699955E-4 104:0.8103448275862069 105:0.016883850644798994 106:0.019900428943812935 112:0.012021432860332857 114:0.014603758988677912 115:0.016640447756624568 
0.0 128.0 101:0.5332001968739833 102:0.018652114231618104 103:3.4976178308318724E-4 104:0.7241379310344828 105:0.01700845559038439 106:0.022183305524942205 112:0.01411801855258171 114:0.014785977030444772 115:0.016580790188985155 
0.0 128.0 101:0.5332001968739833 102:0.018652114231618104 103:3.4976178308318724E-4 104:0.7241379310344828 105:0.01700845559038439 106:0.022183305524942205 112:0.01411801855258171 114:0.014785977030444772 115:0.016580790188985155 
0.0 128.0 101:0.5378449434736884 102:0.01917428026966691 103:3.5632654378587203E-4 104:0.46551724137931033 105:0.01718265878516706 106:0.02406774787094481 112:0.01584948486361765 114:0.014548546991808818 115:0.016706785583458117 
0.0 128.0 101:0.5265961427941073 102:0.020852880511574037 103:6.267574414370475E-4 104:0.43103448275862066 105:0.02333102324586885 106:0.019925174306817135 112:0.012128256390786582 114:0.0191512473452909 115:0.023193632608208798 
0.0 128.0 101:0.5283409646680373 102:0.026492048870779668 103:9.50810748392031E-4 104:0.3620689655172414 105:0.029129322034000232 106:0.020617255237443153 112:0.012859997924693122 114:0.02259465105763021 115:0.028125708256155627 
0.0 128.0 101:0.5441356764407851 102:0.020335720990337446 103:2.9492559575797087E-4 104:0.39655172413793105 105:0.015484928223519462 106:0.033745506737361826 112:0.024713678296498443 114:0.012530342612043773 115:0.01507702849247315 
0.0 128.0 101:0.5574152721832706 102:0.01674945536952673 103:7.396571909292827E-5 104:0.5 105:0.006989948978434343 106:0.03562686209588183 112:0.026376056074397 114:0.005726330945177105 115:0.006899954746580644 
0.0 47.0197062011799 101:0.556407409269496 102:0.014445661175755239 103:4.2513351951034124E-5 104:0.29310344827586204 105:0.00496445173950521 106:0.032634256486458284 112:0.023619874715906958 114:0.003159814554007279 115:0.004525165505896232 
0.0 128.0 101:0.5200668162676405 102:0.02467836048743903 103:8.635768404097763E-4 104:0.3793103448275862 105:0.02768077524915529 106:0.02072607261969709 112:0.012933825683673223 114:0.02484879345203217 115:0.027622450888603673 
0.0 128.0 101:0.5204101300175359 102:0.019754900030207165 103:8.645397942444412E-4 104:0.46551724137931033 105:0.027697153496125285 106:0.015403810822390337 112:0.008050746709826138 114:0.02070476513089387 115:0.026194196782717314 
0.21753601803089936 0.0 101:0.5003235055726589 102:0.039335202267233145 103:0.0028152063455682014 104:0.39655172413793105 105:0.05137062353086471 106:0.02563161914088643 112:0.018011988130744234 114:0.04702413635801948 115:0.052788000818990835 
0.0 128.0 101:0.507750554388049 102:0.029722454505868613 103:0.0013274980807268944 104:0.6379310344827587 105:0.03473092701571576 106:0.017831913877233017 112:0.010417293992398447 114:0.024227815826908257 115:0.032519071845947996 
0.0 128.0 101:0.5299433689623669 102:0.017027531305169073 103:4.2781385740977066E-4 104:0.5517241379310345 105:0.018985421225833715 106:0.01933559070302449 112:0.011527756180909596 114:0.014636699901842782 115:0.01834899837620935 
0.0 128.0 101:0.5309495428230848 102:0.010452551921074514 103:3.0076662323102674E-4 104:0.5689655172413793 105:0.015653535028367697 106:0.01691935705323741 112:0.009272135378094307 114:0.01431994226434134 115:0.015903758734205863 
0.6497263476727675 128.0 101:0.5351387470052912 102:0.014077516187694865 103:2.4796794082805E-4 104:0.9310344827586207 105:0.014064536079374117 106:0.018308232387910107 112:0.010531046768411136 114:0.011704461838731806 115:0.01365770995764565 
0.0 128.0 101:0.5287617767968503 102:0.015580851400755413 103:4.3443633089561355E-4 104:0.5 105:0.019144580322003668 106:0.016433407805884606 112:0.00886627450341803 114:0.016969994846680832 115:0.019069573886491994 
0.0 58.90998667553398 101:0.5251353310304435 102:0.01998013620235623 103:5.964611153421402E-4 104:0.8793103448275862 105:0.022718982428036303 106:0.018573445146198506 112:0.0108787723195218 114:0.019682869071876753 115:0.022710914188606785 
46.76928863225991 0.0 101:0.3288274026998114 102:0.2181307446040626 103:0.16901394143027032 104:0.22413793103448276 105:0.4100474897918352 106:0.16453566254198201 112:0.18449142452024028 114:0.4441219109272319 115:0.4363713506586127 
96.95575275809887 0.0 101:0.564753494297983 102:0.4368480195503824 103:0.1804438833514444 104:0.22413793103448276 105:0.4237459741002438 106:0.5478782684906904 112:0.5252908430043974 114:0.3940461702617517 115:0.43659954217101016 
35.58336571993632 0.0 101:0.5420587255904745 102:0.46131910861257347 103:0.23226852469609852 104:0.22413793103448276 105:0.4810047452860687 106:0.5613543992310174 112:0.5453547673656478 114:0.45750312732090614 115:0.4825262105918964 
96.29123172863677 0.0 101:0.4060956647634368 102:0.1389663719766228 103:0.03497039901272025 104:0.39655172413793105 105:0.18553656043673947 106:0.0711968624466092 112:0.06857958533333429 114:0.170304331243502 115:0.18582394556512322 
114.24485085590861 0.0 101:0.3778090293463489 102:0.14412646851535105 103:0.04083353782679198 104:0.3620689655172414 105:0.20063259186761223 106:0.058882152920902806 112:0.059070942678579694 114:0.16333506074611184 115:0.19565561162969586 
128.0 0.0 101:0.393643341926767 102:0.16264781477590246 103:0.04213712318668834 104:0.3620689655172414 105:0.20383845722005625 106:0.08331184968322422 112:0.08144387535667998 114:0.18088958898257435 115:0.20407950492621624 
128.0 0.0 101:0.5145294452637615 102:0.4417043030029554 103:0.16793033180566044 104:0.22413793103448276 105:0.4087250923360841 106:0.47810572996483663 112:0.46096062042096103 114:0.44109804101787853 115:0.425156996590479 
54.277574141133876 0.0 101:0.5387709032666952 102:0.3938157798406942 103:0.10760783788878112 104:0.22413793103448276 105:0.3268211315242216 106:0.4185628041162855 112:0.39723224330140555 114:0.26669308688958543 115:0.3256260918625455 
128.0 0.0 101:0.517041801636892 102:0.47801951699422907 103:0.1660338439899366 104:0.1896551724137931 105:0.40640037872810886 106:0.5096193524538973 112:0.4887946237486528 114:0.3723365395313026 115:0.41305635159953163 
128.0 0.0 101:0.3377189638116613 102:0.15941124934818499 103:0.05450242723037648 104:0.3275862068965517 105:0.23207286105921873 106:0.11156690171473949 112:0.11009626799564472 114:0.22041499534292486 115:0.23337790490172808 
128.0 0.0 101:0.37278167514264754 102:0.1816097188283501 103:0.050801495991533094 104:0.39655172413793105 105:0.22399280934919175 106:0.15158371435964801 112:0.14520192019877134 114:0.20658954457345932 115:0.2210970424042472 
2.500686333195936 0.0 101:0.37806258619950794 102:0.1770912774901383 103:0.07116699569742498 104:0.27586206896551724 105:0.2654462752138349 106:0.1545000056909037 112:0.1527251615293107 114:0.2407798077802959 115:0.26947373930040724 
14.12423050910773 0.0 101:0.5510768181063281 102:0.50249217652527 103:0.18739971290764634 104:0.22413793103448276 105:0.4318706253932273 106:0.6127392236274862 112:0.5843680665978777 114:0.4255996143739429 115:0.4426837931172241 
10.047155368779295 0.0 101:0.34197342262475056 102:0.39154115127938505 103:0.23301491069253377 104:0.1896551724137931 105:0.4817798736393398 106:0.39374238814097084 112:0.3975154151178651 114:0.49205699043040035 115:0.5052182837297052 
128.0 0.0 101:0.6444578823373915 102:0.3306576951495779 103:0.058231187925636176 104:0.29310344827586204 105:0.23994071732959651 106:0.46709315804787427 112:0.43247307371535776 114:0.2575278245678294 115:0.24045727725752591 
128.0 0.0 101:0.72108997798408 102:0.36000581877358 103:0.06695937964464588 104:0.29310344827586204 105:0.25742562230649213 106:0.5285748136954502 112:0.4897857757777365 114:0.25951752268778117 115:0.2617885226632208 
122.92271964310144 0.0 101:0.5975245652117523 102:0.31436973968870996 103:0.057946882237406606 104:0.25862068965517243 105:0.23934985896969996 106:0.4579169760821527 112:0.4240868133738887 114:0.22165621335111388 115:0.23850638609286656 
67.57017219143711 0.0 101:0.6684114409088951 102:0.3142090009276664 103:0.049343428614295526 104:0.29310344827586204 105:0.22072894384959457 106:0.44348261890356394 112:0.4094632841807292 114:0.19836597442951331 115:0.22365510288790164 
64.21588659496001 0.0 101:0.4437643175128606 102:0.3294456450794508 103:0.08614141637118707 104:0.22413793103448276 105:0.29222133246444426 106:0.29905450994562466 112:0.2857227265085916 114:0.2710699368890001 115:0.2921009404582416 
1.858056362554734 0.0 101:0.31505794019346384 102:0.42333644188904884 103:0.3788288438972225 104:0.05172413793103448 105:0.61479447286162 106:0.48445802191568765 112:0.501061502556875 114:0.5622266720977819 115:0.6389621489205087 
128.0 0.0 101:0.3986564857193747 102:0.15672236750364277 103:0.05482397895581743 104:0.3620689655172414 105:0.23276174743954148 106:0.05128049725587466 112:0.05611354940997183 114:0.22346958401602018 115:0.24173892795638666 
128.0 0.0 101:0.3270080327331597 102:0.25837611511106945 103:0.10992283159633479 104:0.29310344827586204 105:0.3303372299335997 106:0.12545369343830698 112:0.13630099968454001 114:0.2924524337022337 115:0.3326826639353121 
53.928433874604345 0.0 101:0.3616784461171187 102:0.2888997531153678 103:0.12970230987086154 104:0.25862068965517243 105:0.3589846396156303 106:0.20673885966668545 112:0.21262086293995514 114:0.3590887395101311 115:0.36607838426944905 
21.209868839525015 0.0 101:0.45582481691217325 102:0.06996664339387099 103:0.011444837166149396 104:0.3448275862068966 105:0.10537482374992434 106:0.035324390930657465 112:0.029403189701651244 114:0.10291597362984753 115:0.10722484798780878 
1.1909901487819352 0.0 101:0.4769861434925157 102:0.045271709142222755 103:0.004062109164983583 104:0.3448275862068966 105:0.062060956618973505 106:0.019666209519810237 112:0.012915970045997854 114:0.052177238091021 115:0.06073296010996152 
128.0 0.0 101:0.3861516464855534 102:0.12355810187238907 103:0.03634858224740602 104:0.3620689655172414 105:0.18919231086915614 106:0.043578501815518006 112:0.044021325501657195 114:0.1869489154814176 115:0.1985920987687314 
124.64203195105662 0.0 101:0.3350605539318417 102:0.14235039166723537 103:0.0494682582431875 104:0.3620689655172414 105:0.22101024469832237 106:0.03754004149017335 112:0.0423068450842727 114:0.20618149477347475 115:0.22441707591717525 
24.271356522137083 0.0 101:0.3413342797418782 102:0.12186609340766204 103:0.05565611396700563 104:0.25862068965517243 105:0.23453517647945527 106:0.0793791295465651 112:0.08150660993581552 114:0.24626970575983984 115:0.24539957577734417 
20.95321861535267 0.0 101:0.3166688088638962 102:0.17536015614710462 103:0.06635568975863788 104:0.29310344827586204 105:0.2562544074882163 106:0.06164091952416068 112:0.06852964905655862 114:0.17293660707349978 115:0.2409415473151377 
53.481322907963055 0.0 101:0.35874832503699045 102:0.11835747033389951 103:0.048124633643316976 104:0.3620689655172414 105:0.2179634976768014 106:0.029236281714488808 112:0.03448133454330224 114:0.18869397615425235 115:0.2209649494965419 
121.62131402812396 0.0 101:0.5857309948649406 102:0.2690054137891515 103:0.04177464147675843 104:0.43103448275862066 105:0.20295205557169432 106:0.35009080531809605 112:0.3231216135092076 114:0.17928115051406884 115:0.2011004719895979 
128.0 0.0 101:0.6495085816677242 102:0.3272953937031583 103:0.05060802753960886 104:0.25862068965517243 105:0.2235624524340317 106:0.4420336714277103 112:0.40836785817330923 114:0.17916491596579195 115:0.21895295781610621 
128.0 0.0 101:0.6260659280233506 102:0.33081532720086976 103:0.05613953767941925 104:0.25862068965517243 105:0.23555935489051036 106:0.4716519874509518 112:0.4362577523339606 114:0.21507688863038635 115:0.23418064633997981 
0.2837626038843537 0.0 101:0.7103487720897417 102:0.37541278522144034 103:0.0797455157187844 104:0.10344827586206896 105:0.2810953178314271 106:0.5390203880579505 112:0.5013301469070395 114:0.31579629409498716 115:0.2994123501446265 
128.0 0.0 101:0.7867710086911592 102:0.31428679779259916 103:0.023898100233960363 104:0.43103448275862066 105:0.15306598668866123 106:0.5618137795689643 112:0.51317223563787 114:0.13934615259034627 115:0.1547497586411815 
76.64981740853125 0.0 101:0.6628184985496418 102:0.2756924257685033 103:0.030136592450919732 104:0.39655172413793105 105:0.1721081311537536 106:0.452460127504752 112:0.4142759491326118 114:0.1458861471013379 115:0.16876686673401234 
98.15725118595196 0.0 101:0.6821375381323922 102:0.2494897010446361 103:0.02363723127047842 104:0.5 105:0.15221845166302145 106:0.38218322670931937 112:0.34892263903031123 114:0.1258922737186585 115:0.1458597123740211 
9.604809176012012 0.0 101:0.3714065803808026 102:0.25087814196926217 103:0.09469071614697659 104:0.25862068965517243 105:0.30646684744090025 106:0.19207289677863537 112:0.1917734180625997 114:0.30481612235071154 115:0.30986468378474963 
6.728314388253131 0.0 101:0.6404133188306699 102:0.2582248697712954 103:0.03878039983796371 104:0.08620689655172414 105:0.19547777017211126 106:0.39944425692140284 112:0.3674788368159417 114:0.12093153886777061 115:0.18461770951788517 
38.02313757039466 0.0 101:0.6919855275253989 102:0.2589575425062749 103:0.029454710395260215 104:0.15517241379310345 105:0.17012946344394303 106:0.4443880047228338 112:0.40678652596872183 114:0.12546677548415 115:0.16644683337935556 
45.94152934140405 0.0 101:0.6715376602545026 102:0.30790073572131016 103:0.04887265368832016 104:0.1206896551724138 105:0.2196648483334977 106:0.47309417457355524 112:0.4363263740971817 114:0.1525379365490106 115:0.2078755686289473 
-2.8277085232666543 0.0 101:0.30985846740170037 102:0.45628431807428915 103:0.17972197863642653 104:0.6379310344827587 105:0.42289386201342477 106:0.40689482975349434 112:0.39963829574304965 114:0.3467649900662607 115:0.4106380455477998 
-1.4505644578470784 0.0 101:0.42214540491849395 102:0.16434404606358388 103:0.05634325383350547 104:0.8103448275862069 105:0.23598962560765196 106:0.12520457117269138 112:0.12281678820927308 114:0.25293085914567026 115:0.25209241626877815 
-0.0 1.1667288872200663 101:0.5048627773682475 102:0.13649938166248027 103:0.019484306457975824 104:0.8448275862068966 105:0.13803601431866672 106:0.13510951449708022 112:0.12256529061398229 114:0.11773447077101151 115:0.14102206651536037 
-0.0 0.12711266011719785 101:1.0 102:0.40432521615171635 103:0.02099454072074826 104:0.5 105:0.14335394260184536 106:0.7602853113718521 112:0.6944129727207103 114:0.13640853504212858 115:0.14683604685623336 
-5.183567854546689 0.0 101:0.8831517728446656 102:0.3703616457415674 103:0.02902320219196853 104:0.46551724137931033 105:0.1688654736606373 106:0.6892963359122886 112:0.6305543803491377 114:0.14269263919154315 115:0.16928676941128265 
-0.0 0.15174326273779365 101:0.48060632290835237 102:1.0 103:1.0 104:0.7758620689655172 105:1.0 106:0.8942205279570462 112:0.9332602535852217 114:0.882455244476274 115:0.9936100124445062 
-0.3870601477734922 0.0 101:0.35751197388393063 102:0.28228133150207885 103:0.12423752463651139 104:0.6379310344827587 105:0.35130220145453694 106:0.19610258997720897 112:0.20200977146512983 114:0.33172218682414023 115:0.36010630356034495 
-10.300785823680744 0.0 101:0.26836570408139254 102:0.26002951381855244 103:0.12847161083802192 104:0.7068965517241379 105:0.35726885311587503 106:0.09921434965074091 112:0.11789038313905924 114:0.31788040298477777 115:0.3577296124552458 
-128.0 0.0 101:0.45770718224088985 102:0.23628813661397746 103:0.053760123940966686 104:0.5 105:0.23047476271673256 106:0.24162550104828703 112:0.22719004861833683 114:0.2029637782294341 115:0.2288984462509682 
-98.19412759687233 0.0 101:0.6020736224299703 102:0.20465371858637357 103:0.027118599328940063 104:0.5344827586206896 105:0.16317078192445542 106:0.3395653475876157 112:0.3106840190689195 114:0.15042253181295365 115:0.16607300413616036 
-28.39762815657721 0.0 101:0.46109022208800327 102:0.2911957276445943 103:0.08201734805432699 104:0.5689655172413793 105:0.2850967053973378 106:0.2633492846635286 112:0.25279206854962183 114:0.246400172791917 115:0.2861088472213243 
-21.87692381839036 0.0 101:0.460746141160772 102:0.25340502026425 103:0.06821818660499217 104:0.5689655172413793 105:0.259850963514514 106:0.294645822001686 112:0.2781212421733994 114:0.2112859260911624 115:0.2593378422980105 
-21.75678827219056 0.0 101:0.5093001513813157 102:0.2792442489833629 103:0.08958146163316101 104:0.6379310344827587 105:0.29803479070323746 106:0.2763648117911512 112:0.26604995942657567 114:0.283786678739087 115:0.3071325968914891 
-0.0 0.10841542497439273 101:0.7062159657194654 102:0.38313545397272547 103:0.05528042803234853 104:0.7758620689655172 105:0.23373617560234036 106:0.5580483188675 112:0.514715578041376 114:0.21907970629416587 115:0.2388888467514588 
-0.0 0.10357210483916707 101:0.34908180026297486 102:0.5380187331642747 103:0.30666252877282707 104:0.7758620689655172 105:0.5529632991538604 106:0.5142554425193033 112:0.5154584539185678 114:0.41787998250572456 115:0.545568711787761 
-9.177615416820798 0.0 101:0.6137686223710529 102:0.46652952444683116 103:0.1429479929002311 104:0.6724137931034483 105:0.3769595291167274 106:0.5691261264260155 112:0.5384860573542207 114:0.3407963250586605 115:0.3813955914143766 
-0.0 0.06783441324839014 101:0.24305735935259762 102:0.945491933599057 103:0.7746770870994183 104:0.7068965517241379 105:0.8799403170603622 106:0.8639106409761922 112:0.8813169889396949 114:0.7927547776592273 115:0.888109272893611 
-0.0 0.155027044827415 101:0.6202248712890539 102:0.9163123489307771 103:0.7223229081136321 104:0.5 105:0.8496239058085119 106:0.7829907659052083 112:0.8056674184105399 114:0.6322506968204433 115:0.8035261566167099 
-21.491526050033798 0.0 101:0.682842210779477 102:0.5073187469925213 103:0.1795628083607245 104:0.3620689655172414 105:0.4227057526310457 106:0.7302142603083045 112:0.6886950739518737 114:0.418987493818491 115:0.44046206527305165 
-0.0 0.05468974202212893 101:0.3372037721717258 102:0.8013199485930311 103:0.6217569406740655 104:0.8793103448275862 105:0.7881325811747931 106:0.723124284886432 112:0.7415325411393717 114:0.6484659858141283 115:0.7833839567799101 
-0.0 0.08886688411888478 101:0.3658331157159456 102:0.4439214305334076 103:0.44763497001218794 104:0.5689655172413793 105:0.6684559431647547 106:0.33761161297713765 112:0.3878311006441876 114:0.7894374911891461 115:0.7289678501457503 
-0.0 0.10327888032129919 101:0.06674544536595961 102:0.7281966375051323 103:0.7664810564441449 104:0.7758620689655172 105:0.8752634778168242 106:0.3514518713355556 112:0.4544828950244484 114:0.6993502290153094 115:0.8608921785335591 
-0.8415336997308985 0.0 101:0.19736806081407238 102:0.5923755949261988 103:0.3799395317747096 104:0.7758620689655172 105:0.6156977219228386 106:0.5186032183628404 112:0.530773104026967 114:0.4531369617174233 115:0.5837828838650646 
-27.73235986918587 0.0 101:0.2861703128984376 102:0.5102720639512021 103:0.22941381839936645 104:0.43103448275862066 105:0.4780285553183771 106:0.4292756703571681 112:0.42810928549711313 114:0.33625639753313036 115:0.4589988077112909 
-0.0 0.0932190230638267 101:0.11444638741010911 102:0.7435777573192152 103:0.583641389403025 104:0.7068965517241379 105:0.7635367281059474 106:0.60201268006293 112:0.6327742040649736 114:0.6780407606604595 115:0.7633181832162893 
-0.0 0.07637860004576412 101:0.6563771729438695 102:0.5687240982720736 103:0.16059218626353702 104:0.5689655172413793 105:0.3996552787675219 106:0.8346122710568283 112:0.780350931677794 114:0.382257875235429 115:0.40114422614232864 
-0.0 0.14919161137546316 101:0.6821578382609124 102:0.7475624507766463 103:0.2853632467426133 104:0.6724137931034483 105:0.5333507336450175 106:0.9284440434585451 112:0.8800693450894209 114:0.5011386504464652 115:0.5426773774614739 
-0.0 0.1274896218409008 101:0.10204695765959433 102:0.37243819329421285 103:0.29760906197397846 104:0.7758620689655172 105:0.5447127945139324 106:0.17409768433275585 112:0.22140304062117339 114:0.5294348108474815 115:0.5584186606312774 
-0.4999493811636268 0.0 101:0.4605961895568708 102:0.30586917759369037 103:0.1791623415599459 104:0.7758620689655172 105:0.4222321069740473 106:0.32393274487626766 112:0.32618006306240027 114:0.5169455252544664 115:0.4600375180433674 
-17.464150911564076 0.0 101:0.2799728208317921 102:0.2165001775312582 103:0.13092643150393843 104:0.3620689655172414 105:0.36068320006627885 106:0.06057698957702083 112:0.08491065488667293 114:0.4094785807471092 115:0.38789363239775965 
-128.0 0.0 101:0.3554730743555014 102:0.183522744380993 103:0.061829217103327394 104:0.29310344827586204 105:0.2472972561648152 106:0.0706277248696756 112:0.07532551081056917 114:0.20430330278739184 115:0.24861865792355944 
-2.872038232192684 0.0 101:0.12712861686688762 102:0.2707243330346027 103:0.18419003268410913 104:0.3103448275862069 105:0.42814068423821017 106:0.0989511486764602 112:0.13155278576674925 114:0.4148042630697594 115:0.44011852697026194 
-0.0 0.0827789394120552 101:0.10324163937588138 102:0.258664777558545 103:0.20894459711925337 104:0.3275862068965517 105:0.45612201892304366 106:0.07418091300559519 112:0.11669439914543173 114:0.4628461733215051 115:0.4755630345881155 
-128.0 0.0 101:0.3981012640751911 102:0.11305089901557241 103:0.031817640571740566 104:0.3620689655172414 105:0.17689259717084835 106:0.061018458408607625 112:0.05851155167369585 114:0.16809943941223837 115:0.18136462445345783 
-128.0 0.0 101:0.3787805780428167 102:0.1238282101662579 103:0.039488541536480196 104:0.3620689655172414 105:0.19727078354338212 106:0.058120270671772965 112:0.058012940983265246 114:0.18288577373781836 115:0.1988633281927721 
-128.0 0.0 101:0.34738214630878955 102:0.15629051904674954 103:0.049952279592951745 104:0.3275862068965517 105:0.2220976345420675 106:0.09804724741905806 112:0.09677011162401455 114:0.20497531699176438 115:0.22425315821793027 
-128.0 0.0 101:0.38581400489174666 102:0.12611564016123783 103:0.030831824966914955 104:0.3620689655172414 105:0.17410262706921265 106:0.0818919683725274 112:0.07714109662039634 114:0.14800637034738587 115:0.1743677234031953 
-128.0 0.0 101:0.4502130746606554 102:0.1380929006817611 103:0.037545092405324526 104:0.39655172413793105 105:0.19231033562216884 106:0.06350461638357577 112:0.06233466277022974 114:0.19790986625001655 115:0.20110212893439955 
-128.0 0.0 101:0.4001099223691383 102:0.10319429004589567 103:0.026667308508564493 104:0.3620689655172414 105:0.16179239410918642 106:0.05554987332730879 112:0.05212915391249786 114:0.15086635381876126 115:0.16457874179816173 
-128.0 0.0 101:0.4451126584782413 102:0.10924907048455139 103:0.025652780840370357 104:0.3620689655172414 105:0.15865047730741696 106:0.06961277421114423 112:0.06460553865878463 114:0.16569434769965588 115:0.16521980974232006 
-128.0 2.085920113290463 101:0.44257699161360337 102:0.11684267264632034 103:0.025541104455779066 104:0.39655172413793105 105:0.15830085706234115 106:0.08279026941078338 112:0.07653724644109991 114:0.14256040389854796 115:0.16170398008891673 
-128.0 0.0 101:0.40939905371726887 102:0.13859097146721802 103:0.035963993354889576 104:0.46551724137931033 105:0.1881792314245412 106:0.07620972485378949 112:0.0733791665313149 114:0.16634873284853474 115:0.1862099944237945 
-128.0 0.0 101:0.4000176603245383 102:0.119598233383163 103:0.043270270530955196 104:0.3620689655172414 105:0.20658510755594958 106:0.06606468460910896 112:0.06620860189193885 114:0.22986250127728353 115:0.22118947086613538 
-128.0 0.0 101:0.39535308694602844 102:0.15207979325822 103:0.04687163720883464 104:0.3620689655172414 105:0.2150836941832863 106:0.10745097636419818 112:0.1044402855917515 114:0.21661000274946834 115:0.22209641793144594 
-128.0 0.0 101:0.38255758770685094 102:0.14642959633852767 103:0.04230986538393253 104:0.39655172413793105 105:0.20425953426085947 106:0.06764772494702656 112:0.06737268426891342 114:0.18258943959493112 115:0.20528835999884237 
-128.0 0.0 101:0.3776215763010292 102:0.16285227816972211 103:0.05488585575057636 104:0.39655172413793105 105:0.23289407914578222 106:0.0692979259632094 112:0.07226498272124318 114:0.2102882634983077 115:0.2377875696962256 
-128.0 0.0 101:0.4301072300593376 102:0.1314688042009588 103:0.03226146824851745 104:0.46551724137931033 105:0.17813455933894304 106:0.080276840402861 112:0.07606188260392953 114:0.14205363773836446 115:0.1739656208650961 
-128.0 0.0 101:0.4068288193741402 102:0.15929417454771075 103:0.047817175100751536 104:0.39655172413793105 105:0.2172603603195131 106:0.07916462836241552 112:0.0792238581489154 114:0.18889593135528632 115:0.21920348394145833 
-32.5885422114517 0.0 101:0.3449439758191227 102:0.1515151689231526 103:0.06303185897569469 104:0.3620689655172414 105:0.2497082064928936 106:0.07051238800516553 112:0.07554565423983484 114:0.2536665429277748 115:0.26146418240667324 
-128.0 0.0 101:0.3544239981962581 102:0.15844552128047795 103:0.05703006150621559 104:0.3620689655172414 105:0.2374345362608171 106:0.08222586023519904 112:0.08442279976441522 114:0.21581693326770074 115:0.24243133206883405 
-128.0 0.0 101:0.34041347110956005 102:0.1870189915454943 103:0.07074455350643644 104:0.3620689655172414 105:0.26465190909642106 106:0.06597373507062033 112:0.0735753015117668 114:0.2236195078510331 115:0.26403578114504184 
-128.0 0.0 101:0.35815540433171056 102:0.20456022837950957 103:0.08523809825847578 104:0.43103448275862066 105:0.2906756285227809 106:0.10808326205251888 112:0.11478686515148992 114:0.2298779905211835 115:0.2847550277057273 
-128.0 0.0 101:0.4423208309092371 102:0.12199531704175412 103:0.03765445725249722 104:0.3620689655172414 105:0.19259283867713217 106:0.08461755115922424 112:0.08142909660226846 114:0.23021877016546843 115:0.20778479999237667 
-69.01773632347506 0.0 101:0.3807316406124248 102:0.17137097332222942 103:0.06781638297731053 104:0.3620689655172414 105:0.25907925895822687 106:0.11254122575339075 112:0.11435062269176517 114:0.26413464575500717 115:0.2681990893777421 
-63.42822275220583 0.0 101:0.45821072618985786 102:0.160439446450486 103:0.06166964165376813 104:0.3620689655172414 105:0.24697559767977226 106:0.08629493827415666 112:0.08929062063877538 114:0.2777466045708159 115:0.2664051460634374 
-60.39032559693461 0.0 101:0.42311709549860516 102:0.22290194847028805 103:0.11979589333465034 104:0.3620689655172414 105:0.3449327525603212 106:0.14282762049582293 112:0.1539947365924184 114:0.36057519964584794 115:0.37114283943011406 
-128.0 0.0 101:0.36175475838854226 102:0.260920394103893 103:0.09364460966988664 104:0.22413793103448276 105:0.30475928747949976 106:0.28076120545527916 112:0.2708288489382622 114:0.2205798224928667 115:0.2966997976752639 
-128.0 0.0 101:0.49458380146709124 102:0.29233712607838913 103:0.10343259617588454 104:0.29310344827586204 105:0.32038262496427233 106:0.31704214334870107 112:0.305311461855295 114:0.35299158170050227 115:0.3366329295387927 
-43.035819105543446 0.0 101:0.4782121301227606 102:0.29302722071151555 103:0.08463157007117927 104:0.3620689655172414 105:0.28963317373214825 106:0.29064422366532555 112:0.2778574891453943 114:0.26227343943618253 115:0.2940277387262291 
-128.0 0.0 101:0.47743360465798146 102:0.28037268974271007 103:0.07747253990220801 104:0.3620689655172414 105:0.2770344603834734 106:0.2504360087408276 112:0.24022853746754466 114:0.2759981075263977 115:0.2801855289670873 
-128.0 0.0 101:0.6151302445301057 102:0.2709123782869763 103:0.058450632678861275 104:0.3620689655172414 105:0.24039579281173218 106:0.3528787561404179 112:0.32886208131520955 114:0.236199641623199 115:0.24916114955937899 
-128.0 0.0 101:0.49356218294562687 102:0.28663827501088823 103:0.08730636696659387 104:0.3275862068965517 105:0.2942028103090679 106:0.2877450258481603 112:0.2757978182106548 114:0.2901990547528606 115:0.30316082809279443 
-83.62743429125533 0.0 101:0.52165247328025 102:0.3039776138448739 103:0.06769962812496051 104:0.29310344827586204 105:0.2588545910638362 106:0.3930133475497871 112:0.36695575614573733 114:0.20282668852015717 115:0.24916665005798636 
-128.0 0.0 101:0.5037797534601557 102:0.2789852464743613 103:0.10194720789044817 104:0.3620689655172414 105:0.3180608031588497 106:0.2754525489707449 112:0.26778336456192736 114:0.33935866927405883 115:0.3242638218414353 
-128.0 0.0 101:0.5052140270387862 102:0.2407563919443937 103:0.07618463782468558 104:0.3620689655172414 105:0.27470705082318936 106:0.27634429626433943 112:0.26326075682363975 114:0.2815466374828132 115:0.2810314007181791 
-128.0 0.0 101:0.536092873612053 102:0.2982782618181695 103:0.08191312658824022 104:0.3620689655172414 105:0.28491436180104185 106:0.2916670550855261 112:0.2782239257895415 114:0.2678038536632421 115:0.2926809761817074 
-128.0 0.0 101:0.47809299317596043 102:0.2766934433081575 103:0.0814138379741227 104:0.3620689655172414 105:0.28403920402438143 106:0.28720673350614934 112:0.27411041425717686 114:0.27865451494259674 115:0.2919827079935859 
-119.03459304897945 0.0 101:0.3737366504113339 102:0.2975837733494347 103:0.1256741395713771 104:0.3275862068965517 105:0.35333790748692095 106:0.2825340315160337 112:0.27895471409788997 114:0.3175835212450759 115:0.3592689294912739 
-128.0 0.0 101:0.5653512490005552 102:0.267225059217073 103:0.05214942105550936 104:0.3275862068965517 105:0.2269687067754952 106:0.3317073205185609 112:0.30844436264031727 114:0.2195047199814555 115:0.23187834285033432 
-16.715604294596815 0.0 101:0.4004155876106257 102:0.2825589082795334 103:0.11429419960078878 104:0.3620689655172414 105:0.3368771013375399 106:0.26631122460837364 112:0.2621761531822878 114:0.31100103029110077 115:0.3397616804952847 
-128.0 0.0 101:0.4981498709403074 102:0.2797608086624205 103:0.07971847211717159 104:0.3620689655172414 105:0.2810473449127976 106:0.29826258184012056 112:0.28371363876302874 114:0.2740419455563004 115:0.291279625120313 
-44.788334743854406 0.0 101:0.6331922528633512 102:0.431598563022247 103:0.09932718823392492 104:0.3275862068965517 105:0.31392381517271495 106:0.5927227646177424 112:0.5530546352859553 114:0.2742126397384005 115:0.31043899551386883 
-61.951712651204936 0.0 101:0.4928591481440299 102:0.4329699004232772 103:0.1490374287095082 104:0.3275862068965517 105:0.384942913958148 106:0.5071609504811034 112:0.48382580868195374 114:0.35510140605232304 115:0.38768220002555726 
-128.0 0.0 101:0.5451012891932823 102:0.3993511680891851 103:0.15014609025943443 104:0.3103448275862069 105:0.3863787273301753 106:0.5097892110844993 112:0.48636206188631403 114:0.4033820567185605 115:0.40653019989018746 
-27.483868690909837 0.0 101:0.40280291209670366 102:0.39863813213425975 103:0.20463123744062123 104:0.39655172413793105 105:0.4513707193348111 106:0.41255871158926266 112:0.4090535121884637 114:0.46453339102033 115:0.4740873788461564 
-2.776121698883162 0.0 101:0.45865921439571455 102:0.1565807330567179 103:0.023913272766276923 104:0.7068965517241379 105:0.1531151379325878 106:0.12568134976360656 112:0.11509457914949181 114:0.13291139417006106 115:0.15225858994402927 
-0.0 0.0502834225168284 101:0.815410103510287 102:0.5140363030275295 103:0.07420372790593999 104:0.3620689655172414 105:0.2710885439136741 106:0.7967461359373564 112:0.7348262216639199 114:0.22681332441780272 115:0.26388448659163666 
-128.0 0.0 101:0.38439136108750016 102:0.16076701832959733 103:0.05580063074052606 104:0.39655172413793105 105:0.2348418132560221 106:0.10608759079574294 112:0.10550621976929433 114:0.25566168167039194 115:0.2500038920296721 
-128.0 0.0 101:0.26850568491162585 102:0.20649854018331007 103:0.11034557995722719 104:0.25862068965517243 105:0.33097530446577245 106:0.13673593465933373 112:0.14635494603381055 114:0.3280887791975221 115:0.3377089702778983 
-128.0 0.0 101:0.3712194333478852 102:0.18821021542562108 103:0.0767469258784693 104:0.3620689655172414 105:0.2757255802117136 106:0.17135412872216516 112:0.16913538148606852 114:0.24775631561183156 115:0.27739002908482646 
-128.0 0.0 101:0.3611122303312615 102:0.20908012339284165 103:0.1361961499752237 104:0.15517241379310345 105:0.36790623583823356 106:0.18885650344699162 112:0.19830423878895637 114:0.40795997304578574 115:0.3753964728971701 
-65.3517527138291 0.0 101:0.3105557260103785 102:0.21139863530102812 103:0.07954946216169483 104:0.29310344827586204 105:0.28074735193815376 106:0.18394670550808256 112:0.18105525251913418 114:0.18944733158753274 115:0.26448029574241383 
-128.0 0.0 101:0.37697607007282263 102:0.30067712490186704 103:0.1378665254536519 104:0.3620689655172414 105:0.3701664928987266 106:0.31609765378480176 112:0.3112312089709071 114:0.3483007624921103 115:0.38308359372944334 
-2.7564032351461907 0.0 101:0.5501396837237638 102:0.3499296576447083 103:0.1379586288924402 104:0.39655172413793105 105:0.37029072264792556 106:0.3811867084524297 112:0.3692297494532828 114:0.37036922548420775 115:0.3937076952373836 
-0.0 0.1539352542191315 101:0.11288961292233356 102:0.5317081916254794 103:0.8604382679226087 104:0.3275862068965517 105:0.9274669487827186 106:0.15067887403516225 112:0.31885322076695877 114:0.9993471566842023 115:1.0 
-3.774985117877208 0.0 101:0.7505657799985326 102:0.4611662272748503 103:0.09595384487484114 104:0.5862068965517241 105:0.3085161315312303 106:0.6619802682855064 112:0.6153113335552328 114:0.31771363343433845 115:0.3225840839154694 
-4.965463404569684 0.0 101:0.6690523421295606 102:0.457022907464846 103:0.09121856812336028 104:0.5344827586206896 105:0.3007621735682045 106:0.6724282892122384 112:0.6241075209774489 114:0.2655830932861523 115:0.2993663323735035 
-1.1244111293897892 0.0 101:0.8430742955588344 102:0.400623597122162 103:0.05617636319781492 104:0.39655172413793105 105:0.2356371921291234 106:0.6467591707567512 112:0.5956585535389429 114:0.24765746325850702 115:0.247746950752182 
-0.0 0.05466597604951431 101:0.32617712035593205 102:0.4840983046612317 103:0.39574187288126533 104:0.1206896551724138 105:0.6284085047412317 106:0.3038661883935188 112:0.3500360620329925 114:0.6322977475974773 115:0.6736329460733629 
-56.20381124058632 0.0 101:0.5427381879214923 102:0.4448784142596968 103:0.1801995774620311 104:0.22413793103448276 105:0.4234577947631819 106:0.4697407315635571 112:0.4555591798521252 114:0.3747685910502027 115:0.41979269811257375 
-22.484306775432277 0.0 101:0.42645354357589216 102:0.5006041355314649 103:0.2130946556503955 104:0.15517241379310345 105:0.4606473622225686 106:0.4526274288175777 112:0.44592298542635644 114:0.420280349864745 115:0.4613681185977466 
-15.618728907861787 0.0 101:0.5550128621520586 102:0.42930546826437455 103:0.17662420775132892 104:0.1896551724137931 105:0.4192177799460892 106:0.43630905167558853 112:0.4252114418588581 114:0.37287345261143934 115:0.42939574988361834 
-18.06315287100669 0.0 101:0.5669985813681506 102:0.4573571506398557 103:0.16846115690675528 104:0.15517241379310345 105:0.4093734232188715 106:0.4892185587224821 112:0.47096730711040513 114:0.40056070460863635 115:0.4221175759769469 
-128.0 0.0 101:0.5115276728803996 102:0.46654079550934385 103:0.19501657989194782 104:0.22413793103448276 105:0.4405962766122088 106:0.5138648949811898 112:0.4972722427979733 114:0.43061008438727344 115:0.44981989747893686 
-50.09348163504692 0.0 101:0.5798678599759953 102:0.4806841059275224 103:0.15133099379528633 104:0.15517241379310345 105:0.38790743277607614 106:0.5137234761312629 112:0.4900804784791931 114:0.3625724604751749 115:0.3908764893214414 
-10.0051763303683 0.0 101:0.6640213808539686 102:0.4496646340066804 103:0.11198310472981451 104:0.1896551724137931 105:0.33343543710298773 106:0.549519416337972 112:0.5159692989807834 114:0.29718346794745426 115:0.33391872752352075 
-39.83668135130399 0.0 101:0.6162254715462911 102:0.440356015517805 103:0.14259781959023282 104:0.1896551724137931 105:0.3764953216806755 106:0.5187837996447948 112:0.4932036972107878 114:0.37088315484472506 115:0.3855562520956349 
-22.13848928590159 0.0 101:0.5794664012712505 102:0.4598378112963805 103:0.16958971709831225 104:0.15517241379310345 105:0.4107484208306436 106:0.5082865504670097 112:0.488181481987724 114:0.37995285192175604 115:0.4203355430151292 
-1.0569088541632863 0.10223285039884594 101:0.5504746314531366 102:0.5514702529729827 103:0.2788983646304498 104:0.15517241379310345 105:0.527254005672868 106:0.5639582560300388 112:0.5548160716586502 114:0.485349949360192 115:0.5439545143577709 
-3.757974365356899 0.0 101:0.4324004824909715 102:0.47544901843510384 103:0.21014108969925632 104:0.15517241379310345 105:0.45743128373758357 106:0.3927117893590821 112:0.39252662221090223 114:0.4178954775862983 115:0.4652577935133745 
-0.0 0.09035433940625676 101:0.020439111668945752 102:0.4995861612488278 103:0.4285256549353675 104:0.29310344827586204 105:0.6539932452044686 106:0.3301999574491876 112:0.378172634132887 114:0.6007894782776009 115:0.65940512854165 
-0.5776943730545507 0.0 101:0.349382453699301 102:0.4914298065792188 103:0.4289758499597706 104:0.3275862068965517 105:0.6543376375246811 106:0.49372227811154146 112:0.517029207246202 114:0.7374158021907375 115:0.7054034079053613 
-0.12118640386872291 0.0 101:0.19058507877053504 102:0.2674546386554854 103:0.21805843538528982 104:0.3448275862068966 105:0.46600252281578725 106:0.08848578433452084 112:0.13102885512871737 114:0.4994411445826973 115:0.4937431984432482 
-13.401252584283347 0.0 101:0.7308928997988996 102:0.4180365706896522 103:0.09852521390015857 104:0.43103448275862066 105:0.3126466256338777 106:0.5896561900483787 112:0.5501555020259721 114:0.23502901274170948 115:0.30727485324674975 
-71.67227681152974 0.0 101:0.7866765564159605 102:0.3625121014442339 103:0.04644315687150111 104:0.43103448275862066 105:0.21409009008533544 106:0.5880370629309027 112:0.5406562074232335 114:0.21385946954837895 115:0.22139380751321225 
-128.0 0.0 101:0.5858799037040285 102:0.31149257503048167 103:0.0547851572250668 104:0.29310344827586204 105:0.23267868391084956 106:0.45580878279545983 112:0.4216226662199768 114:0.18068227233351863 115:0.22431041288648412 
-128.0 0.0 101:0.5435702582141654 102:0.31178512361187 103:0.07440737268365474 104:0.29310344827586204 105:0.27146274928909975 106:0.41331269032684514 112:0.3865505931107066 114:0.24052031620343914 115:0.2688202860764866 
-128.0 0.0 101:0.6248899173118169 102:0.32925701344813385 103:0.07075667272612156 104:0.3275862068965517 105:0.26467473123522256 106:0.48130663043390787 112:0.44751072551857224 114:0.2271046441911459 115:0.2664151626136725 
-18.24751687707319 0.0 101:0.6611740716232504 102:0.34058050275779356 103:0.06870196578610277 104:0.3275862068965517 105:0.2607771013235673 106:0.47959878676968465 112:0.4456136371949081 114:0.2809800524643672 115:0.27316767748677345 
-13.333163316523027 0.0 101:0.6335569571250178 102:0.30950795760391614 103:0.07915650199341896 104:0.3275862068965517 105:0.28004861272287807 106:0.45348925148700453 112:0.42374619552351817 114:0.3308519383376489 115:0.3039037499060256 
-128.0 0.0 101:0.6430707999897942 102:0.33313776701083136 103:0.06153259604313446 104:0.3275862068965517 105:0.2466990205987395 106:0.4953425651347622 112:0.4587005034717509 114:0.23504115250891305 115:0.255203797825247 
-41.053085521948326 0.0 101:0.6684695008230737 102:0.33750450564185575 103:0.04737793175797062 104:0.3620689655172414 105:0.216251906730676 106:0.5293638668837897 112:0.48732111544372 114:0.19530689713929467 115:0.215246829563869 
-112.5977144130448 0.0 101:0.6364432084584991 102:0.326335868191976 103:0.06605671835126393 104:0.3275862068965517 105:0.25567240252966933 106:0.4373380771170567 112:0.40682528183929556 114:0.231453661506733 115:0.2617175884585191 
-128.0 0.0 101:0.6251844051621017 102:0.31970989598828237 103:0.08007205400481886 104:0.29310344827586204 105:0.2816739266049576 106:0.4428764238755848 112:0.4143028723179705 114:0.29999401787589536 115:0.30113702587121555 
-115.75208881763095 0.12634223049667617 101:0.7206789825702957 102:0.32078166147963305 103:0.038178395787220785 104:0.1206896551724138 105:0.19394058233241238 106:0.4480724630224872 112:0.4116820583514235 114:0.1786865291100611 115:0.19665368856457968 
-128.0 0.0 101:0.7641603104567718 102:0.2732762068652998 103:0.015456961409394598 104:0.46551724137931033 105:0.12274961790015913 106:0.4845918815830706 112:0.4411195139327492 114:0.10562230673946156 115:0.12123253256064917 
-128.0 0.0 101:0.6753925176693989 102:0.31949526541603546 103:0.03558053420168114 104:0.22413793103448276 105:0.18716372098380638 106:0.46029349883408427 112:0.42237281874496785 114:0.13880019061676088 115:0.1821240092838374 
-75.55505263049594 0.0 101:0.3047397427687136 102:0.38435160979385835 103:0.23361829761530042 104:0.3620689655172414 105:0.4824055892187005 106:0.34368125563228247 112:0.35381780111479944 114:0.4649317855800272 115:0.5051721157920392 
-55.12693236140399 0.0 101:0.4625210591622975 102:0.38962590276618103 103:0.18393141374925928 104:0.3275862068965517 105:0.42783873580988624 106:0.41010179632348215 112:0.40322773447238264 114:0.4645926666804281 115:0.45521529370088804 
-46.01475668218472 0.0 101:0.4291209915990138 102:0.4078408152686916 103:0.1539401514529084 104:0.3620689655172414 105:0.3912526829364894 106:0.46299862292574456 112:0.4451160444483038 114:0.35921560529369645 115:0.3942102530571032 
-2.2532883887995303 0.0 101:0.5257066897146684 102:0.43662342753699995 103:0.18011984412741255 104:0.603448275862069 105:0.4233637003152803 106:0.40487309389084963 112:0.39791637010785363 114:0.3676022326346079 115:0.42787069369753983 
-12.220672737285689 0.0 101:0.6212707003180247 102:0.4762190995590447 103:0.14857920477267605 104:0.5689655172413793 105:0.3843479147723863 106:0.5518266016067798 112:0.5238210963884329 114:0.34706362795431744 115:0.3863578554583052 
-0.0 0.05747273212455635 101:0.4583208123456458 102:0.42790483321424877 103:0.22536991681110016 104:0.3620689655172414 105:0.47378068613295493 106:0.406959824597636 112:0.4077700510932889 114:0.4801155302241158 115:0.49923126876898793 
-39.48315461377806 -0.0 101:0.5348691570801976 102:0.005666100782574652 103:1.0673160541016561E-4 104:0.9482758620689655 105:0.00869269412943654 106:0.008291661301895055 112:0.001294517572239917 114:0.00838875147190467 115:0.008572474397422652 
-128.0 -0.0 101:0.53933788385924 102:0.00542904935516253 103:6.682071492154678E-5 104:0.39655172413793105 105:0.006572864079236984 106:0.010651022780202241 112:0.003448076763035416 114:0.006061277373799445 115:0.006583091925686687 
-128.0 -0.0 101:0.5264143329085248 102:0.012811962121033086 103:3.1027394893116316E-4 104:0.5689655172413793 105:0.01592454632108382 106:0.011496632438676477 112:0.004297998386853972 114:0.013096992232967468 115:0.015523617835147338 
-128.0 -0.0 101:0.5334144769442926 102:0.009680158257762736 103:1.609090004206885E-4 104:0.6724137931034483 105:0.011021871227722742 106:0.012215527181253938 112:0.0049126271815906515 114:0.009440922739419795 115:0.010821501556551665 
-128.0 -0.0 101:0.5217294549395332 102:0.014447916426128206 103:4.7600720253386183E-4 104:0.5344827586206896 105:0.02011729592131225 106:0.01288339820900203 112:0.005620839410884101 114:0.017109980871792347 115:0.019572592964483417 
-128.0 -3.2331626044150776 101:0.5068881729178122 102:0.041717652281670355 103:0.002184195530742413 104:0.43103448275862066 105:0.04504020513701732 106:0.02808605981322552 112:0.020075999473322236 114:0.039006109670329865 115:0.044998031168648096 
-128.0 -0.0 101:0.5354859927629456 102:0.019597064998974578 103:4.882607518154499E-4 104:0.6379310344827587 105:0.020395888849290347 106:0.02827710872269376 112:0.01975165788716382 114:0.01750070603220211 115:0.020070568614932602 
-128.0 -0.0 101:0.5299369684130195 102:0.024048719585681427 103:6.386704891916286E-4 104:0.6551724137931034 105:0.023567646326455537 106:0.026988304602169312 112:0.018613299857840056 114:0.01949511578408154 115:0.023216329752484572 
-5.3806439403048865 -0.0 101:0.5420887932054483 102:0.017655306609961105 103:2.732514614563596E-4 104:0.6724137931034483 105:0.014844376417991783 106:0.027152591036886668 112:0.018656186069035196 114:0.014977098941537984 115:0.015528365756892091 
-73.28292445134038 -0.0 101:0.528515548474619 102:0.023289136837503284 103:6.287822606311948E-4 104:0.5689655172413793 105:0.023371398057047944 106:0.025426244774653304 112:0.017176943650524402 114:0.020651110917516004 115:0.023423063488694867 
-62.14729154118807 -0.0 101:0.5218475566052722 102:0.02461700316479044 103:7.013891404193908E-4 104:0.5689655172413793 105:0.024778699186667977 106:0.02404488778281136 112:0.015930870300299424 114:0.015562673865151885 115:0.022094693450309805 
-37.61054182527958 -0.0 101:0.5231877654854018 102:0.023165614059653707 103:7.312165669904565E-4 104:0.46551724137931033 105:0.025335698636796643 106:0.022206023258402294 112:0.014252364511406115 114:0.012710049215151844 115:0.022275604478901638 
-106.18038539785167 -0.0 101:0.5362098769090587 102:0.01803004083074792 103:3.1976098670068E-4 104:0.43103448275862066 105:0.0161909137679962 106:0.025145811271888554 112:0.016828086610522545 114:0.01326177988172331 115:0.015821509229130178 
-4.894425925729288 -0.0 101:0.5475922473245841 102:0.012933539482555939 103:8.609387844113008E-5 104:0.7931034482758621 105:0.007655965469551592 106:0.025126524797597617 112:0.016741174142260406 114:0.006933114781284521 115:0.007742355039303548 
-128.0 -0.0 101:0.5361014621455381 102:0.018053319515837992 103:2.743433209477173E-4 104:0.3275862068965517 105:0.014877232910742938 106:0.024591162318739417 112:0.01630556459363614 114:0.011301163639115947 115:0.014201763392205677 
-128.0 -0.0 101:0.5227809864360512 102:0.026784385298039764 103:8.820743266061495E-4 104:0.43103448275862066 105:0.027993813020572803 106:0.025102652400304886 112:0.01695500239232284 114:0.02371743092885064 115:0.02732129935901257 
-128.0 -0.0 101:0.5300193500853526 102:0.02213637282128865 103:6.023940747227292E-4 104:0.39655172413793105 105:0.022840035346648017 106:0.02513026166573799 112:0.016897518280145154 114:0.018166868268675716 115:0.022332755227906037 
-128.0 -0.0 101:0.5243315900817255 102:0.027531523460163354 103:8.729426465005854E-4 104:0.6379310344827587 105:0.027839688214867816 106:0.026742947186224844 112:0.018457338482616173 114:0.024533885120345295 115:0.027431766493631552 
-128.0 -0.0 101:0.5225499060716694 102:0.028286863493962356 103:9.035218058162794E-4 104:0.5 105:0.028352707953768305 106:0.026406570288859222 112:0.018157733855360292 114:0.025771724506227788 115:0.028179484809229747 
-128.0 -0.0 101:0.5219596326301802 102:0.026920252608789868 103:9.39084849000674E-4 104:0.5344827586206896 105:0.02893857923442032 106:0.025405769844991592 112:0.017249996514500328 114:0.026543511673531594 115:0.029016493006432036 
-128.0 -0.0 101:0.5182634667891637 102:0.0282458762084303 103:0.0013920716882236037 104:0.5 105:0.03560708755579551 106:0.024717351994214064 112:0.01675256033834408 114:0.03312362796132309 115:0.03647004123633809 
-128.0 -0.44608119306073085 101:0.5426181593331371 102:0.00826973263888532 103:1.1428726545005015E-4 104:0.9137931034482759 105:0.009047534559877456 106:0.017390561535875752 112:0.00964868432329483 114:0.009148300768165422 115:0.009413299733644276 
-128.0 -0.0 101:0.5394190361731076 102:0.013274732468520218 103:1.5598692693041512E-4 104:0.3620689655172414 105:0.01082799640815513 106:0.019729970199871726 112:0.01180848579421719 114:0.008032204311727019 115:0.010243601903131144 
-113.06375046772207 -0.0 101:0.5313261247290066 102:0.020225922513774777 103:4.2313573060476803E-4 104:0.4482758620689655 105:0.018872252968092994 106:0.020601734336964588 112:0.012688362336250382 114:0.01479627016537987 115:0.017948433293115008 
-27.323039690326333 -0.0 101:0.5343936116922987 102:0.012299108848422042 103:2.128558668296641E-4 104:0.43103448275862066 105:0.012913216022451051 106:0.01571857084722267 112:0.008143607903812362 114:0.0108181144271782 115:0.012643248889477035 
-128.0 -0.0 101:0.5411370253090771 102:0.013152812594453606 103:1.4554570415705768E-4 104:0.7758620689655172 105:0.01040655112095434 106:0.019682352395429085 112:0.011761658468532497 114:0.00935883837967759 115:0.010154389916575537 
-128.0 -0.0 101:0.5469685058147126 102:0.005938190201973012 103:1.8677863050303493E-5 104:0.3275862068965517 105:0.002879608129252663 106:0.01706966052500526 112:0.009325438454393204 114:0.0022431491235295033 115:0.00280839097419826 
-0.0 -1.6982902211912096 101:0.5386837606211727 102:0.0058305666714603905 103:7.088710439557527E-5 104:1.0 105:0.006812709401233714 106:0.01124948143013129 112:0.003998646823908633 114:0.006552342154941266 115:0.006910643236231678 
-128.0 -0.0 101:0.5335780198867386 102:0.009422907528752186 103:1.466089958399913E-4 104:0.8620689655172413 105:0.010450131681358799 106:0.011286365545298235 112:0.0040554411114165885 114:0.00875327657349257 115:0.010143843472771837 
-58.765349313261794 -0.0 101:0.5358174444445494 102:0.006952437702895132 103:8.969402327665778E-5 104:0.8448275862068966 105:0.007844832561178941 106:0.010536486293832553 112:0.0033498786402936173 114:0.006401087603440353 115:0.0076650530343898605 
-14.386848772824107 -0.0 101:0.5350220029403083 102:0.007237871817013259 103:1.055713562378536E-4 104:0.7068965517241379 105:0.00863713783726489 106:0.011764531225694609 112:0.004481919629113869 114:0.007354947684701019 115:0.008557787863672412 
-7.457713707936976 -0.0 101:0.5352947654940536 102:0.007812744831037912 103:9.29169728531346E-5 104:0.9137931034482759 105:0.008010832437352799 106:0.011092115589669844 112:0.0038608731139112332 114:0.0035940144767710957 115:0.006742002293778421 
